<?xml version="1.0"?>
<opencv_storage>
<opencv_ml_svm>
  <format>3</format>
  <svmType>C_SVC</svmType>
  <kernel>
    <type>LINEAR</type></kernel>
  <C>1.</C>
  <term_criteria><iterations>100</iterations></term_criteria>
  <var_count>1</var_count>
  <class_count>2</class_count>
  <class_labels type_id="opencv-matrix">
    <rows>2</rows>
    <cols>1</cols>
    <dt>i</dt>
    <data>
      0 1</data></class_labels>
  <sv_total>1</sv_total>
  <support_vectors>
    <_>
      4.39722109e+00</_></support_vectors>
  <uncompressed_sv_total>20</uncompressed_sv_total>
  <uncompressed_support_vectors>
    <_>
      3.22845173e+00</_>
    <_>
      3.22845173e+00</_>
    <_>
      3.22845173e+00</_>
    <_>
      3.22845173e+00</_>
    <_>
      3.22845173e+00</_>
    <_>
      3.22845173e+00</_>
    <_>
      3.22845173e+00</_>
    <_>
      3.22845173e+00</_>
    <_>
      3.22845173e+00</_>
    <_>
      3.22845173e+00</_>
    <_>
      2.77361822e+00</_>
    <_>
      2.77361822e+00</_>
    <_>
      2.78148651e+00</_>
    <_>
      2.77361822e+00</_>
    <_>
      2.78148651e+00</_>
    <_>
      2.78543758e+00</_>
    <_>
      2.78148651e+00</_>
    <_>
      2.77361822e+00</_>
    <_>
      2.78543758e+00</_>
    <_>
      2.78741717e+00</_></uncompressed_support_vectors>
  <decision_functions>
    <_>
      <sv_count>1</sv_count>
      <rho>1.3196212563227780e+01</rho>
      <alpha>
        1.</alpha>
      <index>
        0</index></_></decision_functions></opencv_ml_svm>
</opencv_storage>
