<?xml version="1.0"?>
<opencv_storage>
<opencv_ml_svm>
  <format>3</format>
  <svmType>C_SVC</svmType>
  <kernel>
    <type>LINEAR</type></kernel>
  <C>1.</C>
  <term_criteria><iterations>100</iterations></term_criteria>
  <var_count>7</var_count>
  <class_count>2</class_count>
  <class_labels type_id="opencv-matrix">
    <rows>2</rows>
    <cols>1</cols>
    <dt>i</dt>
    <data>
      0 1</data></class_labels>
  <sv_total>1</sv_total>
  <support_vectors>
    <_>
      4.39528656e+00 -1.41626131e-02 -9.14783105e-02 -6.08447194e-03
      -1.36111316e-06 1.03346691e-04 -5.20484391e-05</_></support_vectors>
  <uncompressed_sv_total>20</uncompressed_sv_total>
  <uncompressed_support_vectors>
    <_>
      3.22845173e+00 8.97492841e-03 2.03191079e-02 8.81175918e-04
      8.97410501e-08 -1.38641899e-05 1.87462388e-06</_>
    <_>
      3.22845173e+00 8.97492841e-03 2.03191079e-02 8.81175918e-04
      8.97410501e-08 -1.38641899e-05 1.87462388e-06</_>
    <_>
      3.22845173e+00 8.97492841e-03 2.03191079e-02 8.81175918e-04
      8.97410501e-08 -1.38641899e-05 1.87462388e-06</_>
    <_>
      3.22845173e+00 8.97492841e-03 2.03191079e-02 8.81175918e-04
      8.97410501e-08 -1.38641899e-05 1.87462388e-06</_>
    <_>
      3.22845173e+00 8.97492841e-03 2.03191079e-02 8.81175918e-04
      8.97410501e-08 -1.38641899e-05 1.87462388e-06</_>
    <_>
      3.22845173e+00 8.97492841e-03 2.03191079e-02 8.81175918e-04
      8.97410501e-08 -1.38641899e-05 1.87462388e-06</_>
    <_>
      3.22845173e+00 8.97492841e-03 2.03191079e-02 8.81175918e-04
      8.97410501e-08 -1.38641899e-05 1.87462388e-06</_>
    <_>
      3.22845173e+00 8.97492841e-03 2.03191079e-02 8.81175918e-04
      8.97410501e-08 -1.38641899e-05 1.87462388e-06</_>
    <_>
      3.22845173e+00 8.97492841e-03 2.03191079e-02 8.81175918e-04
      8.97410501e-08 -1.38641899e-05 1.87462388e-06</_>
    <_>
      3.22845173e+00 8.97492841e-03 2.03191079e-02 8.81175918e-04
      8.97410501e-08 -1.38641899e-05 1.87462388e-06</_>
    <_>
      2.77361822e+00 1.03978487e-02 2.95513291e-02 1.49716786e-03
      1.34480331e-07 -2.22490344e-05 4.60875299e-06</_>
    <_>
      2.77361822e+00 1.03545189e-02 2.91413236e-02 1.46376889e-03
      1.55356531e-07 -2.52797818e-05 4.53205621e-06</_>
    <_>
      2.78148651e+00 1.04383165e-02 2.97980588e-02 1.51290628e-03
      4.26514902e-07 -2.39476194e-05 1.37546294e-05</_>
    <_>
      2.77361822e+00 1.03545189e-02 2.91413236e-02 1.46376889e-03
      1.55356531e-07 -2.52797818e-05 4.53205621e-06</_>
    <_>
      2.78148651e+00 1.04376934e-02 2.97890194e-02 1.51206588e-03
      1.72300972e-07 -2.42700553e-05 5.53153177e-06</_>
    <_>
      2.78543758e+00 1.04686171e-02 3.00130490e-02 1.52813527e-03
      1.52860721e-07 -2.45382525e-05 4.95086942e-06</_>
    <_>
      2.78148651e+00 1.03926165e-02 2.93618757e-02 1.47722603e-03
      3.44901281e-07 -2.73104288e-05 9.47543685e-06</_>
    <_>
      2.77361822e+00 1.04051102e-02 2.96205487e-02 1.50283426e-03
      1.50648205e-07 -2.17130146e-05 5.31741034e-06</_>
    <_>
      2.78543758e+00 1.04692113e-02 3.00217085e-02 1.52894296e-03
      4.12274915e-07 -2.42270125e-05 1.34103884e-05</_>
    <_>
      2.78741717e+00 1.04827499e-02 3.01126912e-02 1.53516675e-03
      1.66149803e-07 -2.47613025e-05 5.37796768e-06</_></uncompressed_support_vectors>
  <decision_functions>
    <_>
      <sv_count>1</sv_count>
      <rho>1.3187976612059330e+01</rho>
      <alpha>
        1.</alpha>
      <index>
        0</index></_></decision_functions></opencv_ml_svm>
</opencv_storage>
